digraph Tree {
node [shape=box] ;
0 [label="petal width <= 0.75\ngini = 0.667\nsamples = 75\nvalue = [25, 25, 25]"] ;
1 [label="gini = 0.0\nsamples = 25\nvalue = [25, 0, 0]"] ;
0 -> 1 [labeldistance=2.5, labelangle=45, headlabel="True"] ;
2 [label="petal length <= 4.75\ngini = 0.5\nsamples = 50\nvalue = [0, 25, 25]"] ;
0 -> 2 [labeldistance=2.5, labelangle=-45, headlabel="False"] ;
3 [label="gini = 0.0\nsamples = 21\nvalue = [0, 21, 0]"] ;
2 -> 3 ;
4 [label="petal width <= 1.75\ngini = 0.238\nsamples = 29\nvalue = [0, 4, 25]"] ;
2 -> 4 ;
5 [label="petal length <= 5.35\ngini = 0.49\nsamples = 7\nvalue = [0, 3, 4]"] ;
4 -> 5 ;
6 [label="petal width <= 1.55\ngini = 0.48\nsamples = 5\nvalue = [0, 3, 2]"] ;
5 -> 6 ;
7 [label="sepal length <= 6.6\ngini = 0.444\nsamples = 3\nvalue = [0, 1, 2]"] ;
6 -> 7 ;
8 [label="gini = 0.0\nsamples = 2\nvalue = [0, 0, 2]"] ;
7 -> 8 ;
9 [label="gini = 0.0\nsamples = 1\nvalue = [0, 1, 0]"] ;
7 -> 9 ;
10 [label="gini = 0.0\nsamples = 2\nvalue = [0, 2, 0]"] ;
6 -> 10 ;
11 [label="gini = 0.0\nsamples = 2\nvalue = [0, 0, 2]"] ;
5 -> 11 ;
12 [label="petal length <= 4.85\ngini = 0.087\nsamples = 22\nvalue = [0, 1, 21]"] ;
4 -> 12 ;
13 [label="sepal length <= 5.95\ngini = 0.444\nsamples = 3\nvalue = [0, 1, 2]"] ;
12 -> 13 ;
14 [label="gini = 0.0\nsamples = 1\nvalue = [0, 1, 0]"] ;
13 -> 14 ;
15 [label="gini = 0.0\nsamples = 2\nvalue = [0, 0, 2]"] ;
13 -> 15 ;
16 [label="gini = 0.0\nsamples = 19\nvalue = [0, 0, 19]"] ;
12 -> 16 ;
}