digraph Tree {
node [shape=box] ;
0 [label="petal width <= 0.75\nentropy = 1.585\nsamples = 75\nvalue = [25, 25, 25]"] ;
1 [label="entropy = 0.0\nsamples = 25\nvalue = [25, 0, 0]"] ;
0 -> 1 [labeldistance=2.5, labelangle=45, headlabel="True"] ;
2 [label="petal length <= 4.75\nentropy = 1.0\nsamples = 50\nvalue = [0, 25, 25]"] ;
0 -> 2 [labeldistance=2.5, labelangle=-45, headlabel="False"] ;
3 [label="entropy = 0.0\nsamples = 21\nvalue = [0, 21, 0]"] ;
2 -> 3 ;
4 [label="petal width <= 1.85\nentropy = 0.579\nsamples = 29\nvalue = [0, 4, 25]"] ;
2 -> 4 ;
5 [label="petal length <= 5.3\nentropy = 0.89\nsamples = 13\nvalue = [0, 4, 9]"] ;
4 -> 5 ;
6 [label="sepal width <= 3.05\nentropy = 0.991\nsamples = 9\nvalue = [0, 4, 5]"] ;
5 -> 6 ;
7 [label="sepal length <= 6.5\nentropy = 0.863\nsamples = 7\nvalue = [0, 2, 5]"] ;
6 -> 7 ;
8 [label="petal length <= 5.05\nentropy = 0.65\nsamples = 6\nvalue = [0, 1, 5]"] ;
7 -> 8 ;
9 [label="entropy = 0.0\nsamples = 4\nvalue = [0, 0, 4]"] ;
8 -> 9 ;
10 [label="petal width <= 1.55\nentropy = 1.0\nsamples = 2\nvalue = [0, 1, 1]"] ;
8 -> 10 ;
11 [label="entropy = 0.0\nsamples = 1\nvalue = [0, 0, 1]"] ;
10 -> 11 ;
12 [label="entropy = 0.0\nsamples = 1\nvalue = [0, 1, 0]"] ;
10 -> 12 ;
13 [label="entropy = 0.0\nsamples = 1\nvalue = [0, 1, 0]"] ;
7 -> 13 ;
14 [label="entropy = 0.0\nsamples = 2\nvalue = [0, 2, 0]"] ;
6 -> 14 ;
15 [label="entropy = 0.0\nsamples = 4\nvalue = [0, 0, 4]"] ;
5 -> 15 ;
16 [label="entropy = 0.0\nsamples = 16\nvalue = [0, 0, 16]"] ;
4 -> 16 ;
}