digraph Tree {
node [shape=box] ;
0 [label="x <= 1.498\nentropy = 0.806\nsamples = 5000\nvalue = [3768, 1232]"] ;
1 [label="x <= 0.5\nentropy = 0.917\nsamples = 3707\nvalue = [2475, 1232]"] ;
0 -> 1 [labeldistance=2.5, labelangle=45, headlabel="True"] ;
2 [label="entropy = 0.0\nsamples = 1234\nvalue = [1234, 0]"] ;
1 -> 2 ;
3 [label="y <= 0.5\nentropy = 1.0\nsamples = 2473\nvalue = [1241, 1232]"] ;
1 -> 3 ;
4 [label="entropy = 0.0\nsamples = 624\nvalue = [624, 0]"] ;
3 -> 4 ;
5 [label="y <= 1.499\nentropy = 0.919\nsamples = 1849\nvalue = [617, 1232]"] ;
3 -> 5 ;
6 [label="entropy = 0.0\nsamples = 1232\nvalue = [0, 1232]"] ;
5 -> 6 ;
7 [label="entropy = 0.0\nsamples = 617\nvalue = [617, 0]"] ;
5 -> 7 ;
8 [label="entropy = 0.0\nsamples = 1293\nvalue = [1293, 0]"] ;
0 -> 8 [labeldistance=2.5, labelangle=-45, headlabel="False"] ;
}