digraph Tree {
node [shape=box] ;
0 [label="x**2+y**2 <= 0.5\nentropy = 0.969\nsamples = 5000\nvalue = [3015, 1985]"] ;
1 [label="entropy = 0.0\nsamples = 1985\nvalue = [0, 1985]"] ;
0 -> 1 [labeldistance=2.5, labelangle=45, headlabel="True"] ;
2 [label="entropy = 0.0\nsamples = 3015\nvalue = [3015, 0]"] ;
0 -> 2 [labeldistance=2.5, labelangle=-45, headlabel="False"] ;
}